(2, 32, 32, 1)
tanh tanh linear
-1.008206222970874810e+00 2.718690650003034559e+00 -1.267023802410060407e+00
9.879620905711111734e-01 1.488099292898838133e+00 -8.168961663472346091e-01
-2.875847061566246671e-02 -1.192138588990314219e+00 -3.777434386045780190e+00
-2.005438967793372829e+00 -9.322469016177856727e-01 -1.807877687099122888e+00
9.350887492638477738e-01 -6.020660506853995342e-01 -2.797627887652617495e+00
-1.297406910573984939e+00 -5.894974067418348174e-01 -1.804538389009290311e+00
-7.520554838110471430e-01 -4.233816452993933721e-01 3.501525515649055453e+00
-3.198512147791956473e+00 -1.964483154967320733e+00 -1.455472050381196314e-01
-8.870809341811874971e-01 1.639740864261459485e+00 2.615408231874151390e+00
-5.309640987544073099e-01 5.547226519891215180e-01 1.211225296668470675e+00
1.663415950003731769e+00 -1.021325613165299462e+00 -1.371578500868953387e+00
1.080231938661188273e+00 -1.441180024210852784e+00 -6.210006259686137176e-01
-3.262363410388375851e-01 -1.152020237144144810e+00 -2.313558614058798923e+00
1.414251061433783457e-02 7.330715814682462472e-01 -1.481648971515942659e+00
2.136857821196303311e-02 -2.446435421026293522e+00 9.131715095287242789e-01
1.352944561655947675e+00 1.614437430635525805e+00 1.040380361221992178e+00
-1.977882541857634235e+00 -1.380155476781992796e+00 -1.033458680500201898e-01
1.821425676001825256e+00 -1.629195149604119042e+00 2.541829942283130861e-01
4.133135570083813770e-02 -2.203233049301785318e+00 6.778042201883665019e-01
-2.005209456725840056e+00 -1.789785575640770801e-02 1.972250836175999167e+00
-6.725867252932210549e-01 1.342628005595386087e+00 -2.587957838599133531e+00
2.530943653031680896e+00 1.534712559338889282e+00 -2.146533881586540016e+00
-2.686165864337113351e-01 3.465582605285994489e-01 -8.360463355422325105e-01
2.314955704268075731e+00 1.503211472788903658e+00 -2.842037120271548312e-01
-2.890220365034468913e-02 -1.089190061702290935e+00 -8.001473727988617224e-01
7.771656716643986496e-01 -5.442950936072938894e-01 2.505315614366466548e+00
-2.050348667343480535e+00 1.484248583207868899e+00 2.192066203063766316e+00
-9.364252157416197431e-01 1.192813257651722969e+00 -2.940186912479571202e+00
6.850968527863047219e-01 -1.743955469307311379e+00 -2.170635853592385867e-01
2.286898750149340742e+00 -1.913819797633486974e+00 3.959627378687676225e-01
1.496389449737703048e+00 -1.473866776785491606e+00 -5.357306605214156026e-01
1.726025037193881007e+00 -1.792340392282273653e-01 -8.620496874526381581e-02
7.048347699810358913e-01 1.286845132459392138e+00 -3.528743815245418691e-01 1.120011776014052440e+00 1.248032448043572940e+00 -2.244572848205387050e+00 -7.776407703990041442e-01 1.205920110231261333e+00 -2.034857906064266586e-01 -7.542404627864744970e-01 -3.053372071904343343e-01 7.491362547267317318e-01 -5.295299787759424337e-01 1.177255311901410639e+00 -5.267545927212767820e-01 -1.379348456438966863e+00 -1.532214291217248725e+00 1.226741523520473054e+00 9.884901548839133412e-01 -1.195143901536634967e+00 4.965539743291814134e-01 3.773705514828394891e-01 8.773633927326069948e-01 -1.269173453614901581e-01 1.057279831743137555e+00 -1.205959874007480614e+00 9.657831808295694875e-01 9.000723892289838601e-02 -3.224175446762421737e-01 1.637115771024797162e-01 -1.066133987533355310e+00 4.908274743289207653e-01 -7.862696157892334892e-01
2.470904426343779325e-01 1.505691438280872541e-01 9.380105194658584500e-01 1.640314835519049996e-01 -1.225796974963157815e-01 3.488581223575252244e-01 -2.704457019546496199e-01 1.630048101699261176e+00 9.166487302265550197e-01 1.748951217116801793e+00 6.569421500025902638e-01 6.827703861583763745e-01 -1.468164985731713168e+00 -6.075063352377003678e-01 -5.502838090386231729e-01 -2.956207729986770061e-01 3.170961248604661220e-01 4.691499476196961393e-02 -1.079611569737251697e+00 2.574038276103143841e-01 1.226201264503202548e+00 1.600045773718252518e+00 1.583478274219614956e+00 8.769126770166710827e-01 2.161729083563467935e+00 -5.621284340180721095e-01 -2.933721044732492955e-01 1.439139002244186782e+00 1.146441266403521064e+00 1.939897945769282483e-01 -1.236096038995186053e+00 1.261259080455376269e+00 -6.890586736987024397e-01
2.129449843578749668e+00 -3.973697281929668979e-01 -2.260261482011226564e-01 -1.377693724673835218e-01 2.795546059570818559e-02 2.594163457822289409e-01 -2.849154784423062470e-01 1.339997131182344425e+00 -6.536833769530544513e-01 -1.094732814093416495e+00 3.591916354950960288e-01 -3.390167205284489588e-02 -1.194754674793263138e+00 2.208030024475354569e+00 -1.015859715727460477e+00 -3.411237443185993756e-01 6.164244321637604163e-01 9.152050238144446292e-02 1.580265059664079708e+00 4.733174141995140083e-01 -6.255127522035334175e-01 5.674752420291649946e-01 1.554344794634475169e-01 -1.423326380583880280e+00 3.904386408057994307e-01 4.099720086895811688e-01 1.813243718540890947e+00 -5.367017224155280070e-02 4.800832665212552142e-01 2.593054341708433075e+00 1.352895544807933614e+00 2.242989844550293266e-01 8.116480798158616228e-01
8.711639412192131449e-01 1.379820085060552204e+00 -5.125953393140010306e-01 -1.898634275975687347e+00 -1.311580027480974998e-02 -1.699468332765608602e+00 -1.168009960283486581e+00 2.043979721626469015e+00 2.137887378058212828e+00 1.000461569060241418e+00 -8.226054791628215068e-02 1.105179948934275291e+00 -1.896346968005495848e+00 2.235265352046433840e-01 1.196644155167631007e+00 1.334212730995592011e+00 -1.442865482698525881e+00 1.548915305557557298e+00 -8.304346616284274951e-01 -1.466265119645259851e+00 5.340157443777434620e-01 -2.411694484682546935e-01 6.489470756297711640e-01 -3.866748981560106380e-01 -1.245709945089507498e+00 2.054273575014742281e+00 -1.158046211157454541e+00 1.501451005508072756e+00 1.205796777682664800e+00 5.675139826932911954e-03 -1.061532530455737700e+00 4.483291769424178619e-01 -1.056845315304620447e+00
1.233922626320366644e+00 -7.160189923136911494e-01 1.347930267185399655e+00 6.292816587247425097e-01 3.986842417523521198e-01 6.944414258043051236e-01 1.883613806690093151e-01 6.300448074188168789e-03 -4.940502389264284089e-01 -6.324654675798651038e-01 -9.409678600688584638e-01 -1.067968561816647233e+00 4.989910707776961662e-01 -1.033378391363686921e+00 4.050281180158405436e-01 1.892035681579632422e+00 -2.712000042668731292e-01 -1.100033878763195583e+00 3.768172578210694356e-03 -1.848148821321173196e+00 -1.171791688864531000e+00 1.926668017623490936e+00 5.903167934062831801e-01 9.936268227043505430e-01 -2.310977151031700649e-01 -1.111032750615284836e+00 -4.392993103731839266e-01 -1.603906273523921122e+00 9.103924243256327209e-01 -2.020232519384056236e+00 6.757994504496472876e-01 -3.855799194309073585e-01 6.253316065837404292e-01
4.470883830945965309e-01 -3.181300900072452920e-01 -1.406142239431758867e+00 7.654890360151147544e-01 9.166977456395398738e-01 -1.028882728955701209e+00 -1.418065677508012767e-01 -1.093260653219097156e+00 4.418159210146159754e-01 9.687155572998646935e-01 -2.210653246416319773e-01 -1.013618519892756753e+00 -2.414562112954993012e+00 6.432578172513362391e-01 5.805107356011647290e-01 1.410329898689503203e+00 3.804451163018382487e-01 1.938036479224087394e+00 -3.376763308255276153e-02 -3.213029871714468549e-02 9.220989042690452830e-01 1.930633190056062487e+00 1.243761021487839402e+00 1.012521993072289295e+00 3.356494150877827876e-01 2.645674816807647156e-01 -5.432812529432332616e-01 4.882758097287815541e-02 2.044468364610388667e-01 -1.269898110220100795e+00 -1.252749746811658405e+00 -8.476425611656793757e-01 7.453390388239808928e-01
-4.036870284103384887e-01 2.146876660355996891e-01 6.152713503016825625e-01 4.529432135000748816e-01 -9.582815263872476175e-01 9.096241398942086498e-01 -9.806315402966154782e-01 -6.716389969992682119e-01 -7.733659784051793995e-01 -7.995691262936818755e-02 -4.128493503683134391e-01 8.539083942030574192e-01 1.335795435845336332e+00 -1.019584051934912416e+00 -8.416300823556296384e-01 6.638109527658928588e-01 1.384467058246238391e+00 -5.819667705300141103e-01 -4.664454991238227155e-01 8.209475353131625575e-01 2.653548468028497087e-01 -4.508835535207093848e-02 -2.513188264650977888e-01 -1.389263145482348749e+00 1.274968665801736512e+00 -8.348023567030931069e-01 3.424890848085270223e-01 -2.349244051908132846e-01 -3.945026630776251042e-01 4.958681575287371968e-01 1.996820476561956825e+00 -2.460853160453611022e+00 6.963224552253801658e-01
1.868804000187690439e-01 -1.139291503633819008e-01 7.500799252421205265e-01 -1.059635226207090941e+00 -1.002709473655011729e+00 1.001298423450880160e+00 1.065991195724184104e+00 3.830068924485867665e-01 8.345209691339924296e-01 5.853127876162197429e-01 -1.734814290775572365e+00 7.697795887626778244e-01 -9.056823846859511640e-02 -1.252237498045065456e+00 1.754199122759928064e+00 4.436841994392036748e-01 -1.371389618732717641e-01 -1.714292868758434951e-01 -6.238522730812725570e-01 3.989312127281359199e-01 -1.785269153529514652e+00 -1.266327051490145683e+00 -1.551402233906671535e+00 6.433286834132305732e-01 1.880696108135323952e+00 9.737834149170365716e-01 -1.036639080353438880e+00 6.040364463256292504e-02 -2.056131915142990763e-01 -5.996600552581726751e-01 -1.837796319770728992e+00 4.782236714760083607e-01 1.411596716601340562e+00
-5.985789550555233873e-01 -5.907697335219163071e-01 1.188919224270200470e+00 5.455796842745120889e-01 -2.267898783477137192e-01 5.134090502319684779e-01 7.653237750490022862e-01 -8.291568725549364194e-01 5.157659651588328842e-01 -1.548476126751293203e+00 -3.369358765071719386e-01 -1.615684039729009813e-01 -8.060955924821709973e-01 1.771864717676706835e+00 4.157442659234419913e-01 -9.333388896495438125e-01 -5.134125451731523793e-01 9.919370479677316332e-01 -1.247839001638274992e+00 -2.303307179586648323e-01 9.555357708436251762e-01 1.974169927016421688e+00 -3.818665428851085175e-01 -1.353792893592336899e+00 1.321280954179696154e+00 -6.657411034873552680e-01 2.419982040384520694e-01 -9.177821624750318596e-01 1.176746937350346515e-02 -9.412279478999010518e-01 5.691591506359370278e-01 1.204959007972233875e+00 1.032888223265337579e+00
-2.510275676659568314e-02 1.727416128027990938e+00 -1.038923514174884044e+00 -9.956933186480039222e-01 -1.071002441715466880e+00 5.483799318726924055e-01 -9.008628551761775904e-01 1.091655029506281016e+00 -1.089843282388646140e+00 -1.416982680509183634e+00 2.839932191515152637e-01 1.700775824205345899e+00 -2.832137411726761145e-01 7.051257346915283941e-01 1.738073647762519019e-02 7.823825531264508304e-02 -5.600094879212606791e-02 -4.804350733778803284e-02 -8.200121409794648430e-01 4.123951696771605002e-02 -2.577157495732192993e-01 -5.619670700333221358e-01 5.427083307020025282e-01 5.642725728086471770e-01 -9.244161701303980072e-01 -4.098138869515881022e-01 2.226746339505487171e+00 -4.383260502255677260e-02 3.228630311807181852e-01 -1.867544190922151293e+00 1.991865862884618865e+00 -9.952301819710740460e-01 4.945780106735249149e-01
-9.431824253536550406e-01 2.372382937565866268e+00 -6.192594183237956074e-01 -2.086209134015422961e+00 -1.537836493711145947e+00 -5.689918256633628157e-01 -8.913459762085311835e-03 1.474657466900038294e+00 4.977537540656356424e-02 1.453223782213991067e+00 9.026216503092059362e-01 -2.598855229384022802e-01 1.066794584432994686e+00 9.834092909707696784e-01 -2.359579530924340307e-01 -1.047492156592329388e-01 1.618470992662661478e+00 -4.861683815215447346e-01 1.574871149696501771e+00 -9.102901029916095066e-01 -1.246933894356365702e+00 -8.533571097989158805e-01 1.374502219925103130e+00 8.622413034362826911e-01 1.407422942710907510e+00 6.209937534051461760e-01 7.810839435683867293e-01 1.464322249499463879e+00 1.437895572528398169e+00 9.775434217329956321e-02 1.164941884883805789e+00 -6.907360426871664849e-01 -2.523811403099939787e-01
-6.807695420198466296e-01 1.540815792887506863e-01 3.050689847580563829e-01 1.196184449780556339e-02 -1.191103397961011057e+00 -2.274937377309388165e+00 -1.133949532474388899e+00 -2.410886892658406389e+00 1.538595054809152263e+00 -7.491287472649272861e-01 -6.523720989165545658e-01 7.308828573491669145e-01 1.325734320931108989e+00 2.412027285889764006e+00 3.708530289577905981e-01 -7.354848314829086631e-01 -4.834237962070714323e-01 1.899998009381639985e+00 -1.658496129003030450e+00 -1.085618167637033282e-01 1.206807202707271598e+00 8.699783042175541770e-01 -2.434248855358047414e-01 1.293087850158014085e+00 -9.286594443413482836e-01 1.306742436921925377e+00 -1.156211702480834491e+00 -1.240601124865242433e+00 5.298412355000379215e-01 -3.460158456985408248e-01 -8.532959264605808336e-01 1.577602219446523901e-01 2.675004270662958428e-01
9.536131519349276553e-02 -3.028815055336028794e-01 8.903586272026272619e-01 1.545316654521902144e-01 1.259044180041933192e+00 -1.227496383962386611e-01 1.968150034581149344e+00 -1.017793291913452025e+00 3.349246057555735345e-01 -4.349676729543104914e-01 -7.623403364522280956e-01 -1.274807123563868050e-01 -1.530509449408603784e+00 1.624541544511623359e+00 1.320689018404497705e+00 1.616864085736946163e-02 1.149946693589601887e+00 1.033679896542978316e+00 -4.058344758490203263e-01 -1.312298806540391327e+00 -2.618620731652793188e-01 6.199754949778898405e-01 1.964279677747510000e+00 -6.467467696738554706e-01 4.558643034429596397e-01 -6.516732575686050577e-01 4.474863070937963871e-01 -3.819779333859310011e-01 -8.427272528976173516e-02 1.732876141699267181e-01 -7.540646117426695882e-01 8.257965168211159335e-02 7.864039934295656842e-01
6.991732946053500486e-01 -5.979175843500299237e-02 6.349692758694226447e-01 -2.819618859268618882e-01 -2.445880863006173467e-01 -3.704978712339819236e-01 -1.185836172427797486e+00 -1.911979213418067758e+00 4.792199914216599965e-01 -2.165373584366609094e+00 -6.349686371592360157e-01 3.057136173585016659e-01 1.742279377559531106e+00 2.653505320687081781e+00 3.000701146398891683e-02 -9.817858540055122152e-01 -8.438811824922719529e-01 9.241412440920475646e-01 -3.968831930173240541e-01 4.531227991195473370e-01 3.752963898615667149e-01 1.664326698450900865e+00 3.560464167220555032e-01 7.824295197993842710e-02 7.722995477060039526e-01 4.909614397506560923e-01 -1.473543536214300120e-01 -1.632764602435918366e+00 1.448006259683050877e-02 -1.505717133466735413e+00 2.254736640784489599e-02 -2.916159736621978804e-01 1.054404537586252300e+00
-4.938548513265220152e-01 5.296036924606225410e-02 8.800043665025448769e-01 -1.461989250050621969e+00 -7.522726002793811428e-01 -1.278338986075743700e+00 4.123094580185194397e-02 9.757033742017710010e-01 5.434146738055372072e-01 -1.988862536463448016e+00 -7.074211787234673254e-01 1.603989757967976826e-01 1.760900657403371872e+00 -2.590048374287817201e-01 7.420334314905221440e-01 -2.012908242992266672e+00 2.094219508234960725e-01 5.932067002330382310e-01 1.026332228129961166e+00 5.687751060312661311e-01 -9.888046762973941028e-01 -2.260361163863419953e-01 9.695296296360492727e-01 -4.260312966464311346e-01 4.511121593984128153e-01 5.716402751889455569e-01 1.383922924705060620e+00 -1.193861894804482571e+00 1.548528368597243743e+00 -9.752209879290834049e-01 1.798035317056065008e+00 1.925149652238393516e+00 -1.034564498545717109e-01
-4.122055626767582304e-01 2.417495663129449190e-01 -8.639003664741132793e-01 1.031091260249625163e+00 -2.325587667233307343e+00 1.659484213117825124e+00 3.620251540831466719e-01 -7.274001538507800513e-01 -3.724257453992614597e-02 -2.173892675780128236e+00 -1.630325275869396462e+00 -1.817642872142105626e-01 -5.662461426621677729e-01 1.614834190430251004e+00 -1.675637824166630541e+00 2.744609972921410734e-01 1.793403553860333233e+00 2.166890352959259136e+00 7.694070833648538610e-01 2.826027248266787528e-01 1.375297357296980938e-01 7.655972942713690221e-01 7.442073541151303928e-01 -3.505153400842120903e-01 -3.739247137685177136e-01 8.895616694063437357e-01 5.049795156186394074e-01 1.175438651331683730e-02 5.784672826236208175e-03 -1.865678052381110619e-01 1.733485463261662529e+00 3.102740533350173968e-01 -1.672600811540847277e+00
-1.883466951553109114e-01 1.719686596106173582e+00 -1.236703262662020686e+00 -4.395820337596180460e-02 -2.401100801969550391e-01 4.670654567788271594e-01 -3.551317206472384136e-01 5.399722784258761399e-01 -1.914348698498683721e+00 1.813458242094455386e+00 -4.482495767159969113e-01 1.439556701589156162e+00 1.401902311027137582e+00 -1.104496234189760395e+00 4.527830798930378986e-01 -1.095332990954428709e+00 3.785368125544074092e-01 1.732958026279952657e-01 7.375926278665680125e-02 -2.516099499074460066e+00 1.299586025079578988e+00 -4.121964482885633885e-01 -2.222771811744434167e+00 5.458421189282995911e-01 -5.509578084392374731e-01 1.517583896632366702e+00 -2.405879786026351719e-01 -4.336898003510397115e-01 -1.464076018955367264e-01 -1.828125386483995918e+00 -1.456313144557736639e+00 -1.472029469479165353e+00 1.198013406055710828e+00
2.022367282609042860e+00 1.528466415412707557e-01 1.815525635452806874e+00 4.352583510854777238e-01 -7.211045325249417770e-01 4.888250163636111423e-01 -3.300853792795212516e-01 1.856178116065176908e-01 8.812542813245693996e-01 -5.070825883840779369e-01 1.500765755138409353e-02 4.228902851004207042e-01 6.608920927370521836e-01 6.432493984874070314e-01 1.358899187888620019e-01 5.137522535525531620e-01 1.324976429396596878e+00 5.966559965514883768e-01 2.681248987581929200e+00 5.436719011244086630e-01 6.542078595841209765e-01 -1.034879902667811269e+00 2.073020984502370323e-01 -5.645343117999459537e-01 -5.119724138379635470e-01 -1.604666916349814842e+00 8.536540311491148669e-01 -1.386057941116662029e+00 7.905046036711980140e-01 2.605711283450533045e-01 1.354242197117544899e+00 1.501464916024405349e+00 2.325706595869672932e-01
-3.582364200308361668e-01 -6.417472941569669909e-02 1.217395135703037035e+00 -1.033718017068935291e+00 1.279098881395355658e+00 4.372357353768982491e-01 -2.296519532721242651e+00 -5.750212110163972490e-01 2.766584479338853875e+00 -5.928773398142579421e-01 1.597905953285005287e+00 -1.060110672416175071e+00 -2.043007225154261697e+00 -2.454678262743769657e-01 -1.032179551255734129e+00 -6.086791572609975276e-01 2.347491049366730864e-01 1.852527263717259343e-01 1.148601056702889256e+00 -2.084093277374438724e+00 2.067986180724204814e+00 -3.925200841931507090e-01 8.804709259569988289e-01 -9.594936641938749400e-01 8.415033854720688211e-01 -2.903857872430947173e-01 -6.730688610197824717e-01 -5.874537956597440935e-01 -6.997665271636497319e-01 -3.561736829168137830e-01 1.463151175784088487e+00 -3.228769574823104893e-01 4.129789035610016423e-01
-6.681886708253153007e-01 -8.782800809789765850e-01 1.113076225534186614e+00 -1.488639882782292645e+00 -3.157068401932344726e-01 -6.217069440662332802e-01 -1.381991989465297943e-01 1.535897030886556047e+00 -3.583333509860477939e-01 1.474405686459668630e+00 5.843221714212697426e-01 6.325718118074129537e-01 1.820590736750307581e+00 5.134917097978443368e-02 9.792656247464455177e-01 4.887910915861662930e-01 1.861187740432802551e-01 -2.193988120243914597e-01 1.624367655896515217e+00 1.348211332727681455e+00 -7.262779052819254844e-01 2.750035723858986203e-01 -9.588798549516075465e-02 -7.856240339225261105e-01 -1.444627806944944748e+00 -9.037536722569723679e-02 6.367442528338115304e-01 -1.769794730369825597e+00 7.386190384763681172e-01 1.221133870277861577e+00 -7.158706351143004909e-01 -1.858026888734551352e-01 -4.712416114787734700e-01
-1.399731920632475202e+00 1.014177102444381529e+00 -1.299020821342205645e+00 1.949668874657859874e+00 7.452345437210786683e-01 1.019113491566787377e-01 6.893561999900026382e-01 8.242951125631741149e-01 -9.804591726075121416e-01 2.107265355525867606e-02 1.101805364487886019e+00 4.234988143784854109e-01 1.150049282876182799e+00 -4.206613068490493990e-01 1.135371569034908656e+00 -5.533986327267015337e-01 -1.217909139948605945e+00 -7.041893378874070075e-01 1.266497172045489561e-01 -1.803532195781050174e+00 -6.550141568008263082e-01 7.225491433750519388e-01 9.413904016932910235e-01 -1.529302337375445964e+00 -1.429198840544076143e-01 1.760534102421125624e+00 -3.052988304982887868e+00 1.896864882751820192e+00 6.347873442873683825e-01 -5.932157536311032375e-01 7.181127121281962733e-01 3.429542760869330187e-01 1.252197520941512043e-01
-1.256310697540544918e+00 8.866741351484551670e-01 1.250114699767493898e+00 -2.855673747444184007e-01 -3.189416475533123907e-01 -1.192644147617638595e+00 -1.509451275054136898e+00 -2.298491391835606745e-01 -1.220755446552580503e+00 -4.986595610754734342e-01 -2.918613324709349865e-01 -1.051051077281778046e+00 9.054334714328207134e-01 -9.031102065220123487e-01 2.075490461174932300e+00 3.135759998853150377e-01 3.695634625264390682e-01 -2.349411052145106815e+00 -2.127351239630709490e+00 1.709584851810160622e+00 -4.297627146859780978e-01 4.956441656349245273e-01 4.143154934474116424e-01 5.079992284163482585e-01 1.545734336586868096e+00 -4.379451914939097579e-02 1.527402087956328813e+00 1.092744178125395038e+00 -7.182060529966711737e-01 -1.387658367329011933e+00 1.119830755792249999e+00 1.012461297823890716e+00 -1.285227617136303735e+00
1.246437894903961618e+00 -2.320890993274961733e+00 9.802352515450417636e-01 3.237999114186111416e-01 -8.172977685036385553e-01 -1.002443165137266057e+00 6.629597051248927730e-01 6.262029914221697302e-01 -3.254891509395413940e-01 4.505391864870245677e-01 -1.838415625537699549e+00 7.821741799963471964e-01 1.435229220272755901e+00 1.885311254999484154e+00 2.062011258333834030e-01 2.125290858734403265e-01 -6.494783908685420881e-01 -5.092366622715103208e-01 1.101322416767847034e+00 -8.371095096566237848e-01 6.700833130412225946e-01 -1.101195489855488985e+00 -1.398694470730060591e+00 2.200415316687764467e+00 -4.487090647341009375e-01 1.673416767060704469e-01 -7.306014032275959247e-01 -1.628422924755398737e+00 -3.860716410339786742e-01 -7.446399590791704659e-01 -7.014353650036993237e-02 9.232979301294657049e-01 5.327397379122762455e-01
-1.466141155699339782e+00 4.967827698800392211e-02 8.759421234408940604e-01 -1.358684041378510066e-01 -1.219116739090159163e+00 -5.042023834697325624e-01 1.410045793425287686e+00 1.027220826431125555e+00 -2.248658313032080303e-01 5.030420075448668316e-01 2.366911399295575258e+00 5.640960798274211596e-01 -1.368624015554175788e+00 3.354805043220638883e-01 -9.386437488464026702e-01 1.245956303154617473e+00 1.309365447954414563e+00 -6.011017926548442025e-01 1.274617461109780914e+00 -2.292770314803831144e-01 -2.037344345546226454e-01 -2.047570510995466719e+00 6.295409052122071802e-01 9.346071921834802065e-01 2.228702879265435755e+00 -2.795095751988366239e-01 6.747934071050736282e-01 3.332045838975102314e-01 -9.203300592875705011e-01 7.903429884802671834e-01 -6.679811976252596484e-01 6.006101827924593684e-01 1.855809686863173769e-01
-1.040797638613388143e+00 -3.607477257303118856e-01 -1.329918918434479069e+00 -6.856713987715808978e-01 1.430318402490548868e+00 -2.942211204602990793e-01 5.297373400199839599e-01 -1.196670301051945051e+00 1.393312340640778579e+00 -2.371113219697452923e+00 -1.043278709748574062e+00 5.030429455336589140e-01 1.033659218488248932e+00 2.948454610900173578e-01 1.334690173335323804e+00 2.093802345074077028e-03 -9.232941979889605078e-01 2.617033908599532624e-02 -2.462396414831165448e+00 2.262306557595603618e-01 1.913190337309253586e+00 -1.962965337440948366e+00 -2.519745995220280310e+00 1.716065264260537293e-01 -9.474175298475235457e-03 7.669908779506511287e-01 2.075148065719571111e+00 -8.067077634170516376e-01 3.322362618624742914e-01 2.056070752114909972e+00 4.017422958202436778e-01 -4.101231950210071364e-01 3.514080826957568515e-01
-4.252017450834908452e-01 -5.165972306547255040e-03 3.478964642841623212e-01 -6.963142164108619969e-01 -4.850150131375604579e-01 4.488977500969927315e-01 -6.016349422612964348e-01 -2.267123317842798080e+00 4.980357441784453720e-01 1.524078940264943061e+00 -1.467069428043548562e+00 3.487513498656836242e-01 7.638383934576473688e-01 -1.478554140692357743e-01 1.699950373769697209e-01 -1.103551529184661595e+00 -4.375412011446624949e-01 7.720459771226088064e-01 -5.429650483026983165e-01 -1.651618468179799404e+00 -2.069946046407971363e-01 -1.882795388860037666e-01 -1.006960162145164928e+00 4.831190716710564437e-01 2.280820019922189079e+00 1.175015774334272400e+00 6.505996878680851969e-01 -1.188012069423775019e+00 9.345805854740618646e-01 -4.379482408089068191e-01 -7.604203463246358430e-01 -2.169476350481450044e+00 1.016413979024164693e-01
-3.547973440663086675e-02 1.258496618447286108e+00 4.529998732469729950e-01 5.117907448549420257e-01 1.077368391047508617e-01 6.479014097204018885e-01 -2.444080464233380656e+00 -4.274122894692054531e-01 2.394248447257979473e-01 -6.750751255201687950e-01 -1.265929410530143961e+00 -2.842360648059783501e-01 3.344845987564871725e-01 -7.930317537265190175e-01 -3.892726444487834003e-01 -1.169007122854632374e+00 2.203137653665694362e-01 3.625143819032038417e-01 -3.061242528111767225e-01 -3.575709489550294995e-01 3.066004739033867735e-02 1.449275215694475483e+00 3.219165065659130853e-01 6.246566444612887681e-01 6.856532523790069833e-01 -1.526627289687853661e+00 -3.276548773760127875e-01 4.410159087582285475e-01 -1.021815218449894314e+00 -5.129151132488166676e-01 -4.786089227599654716e-01 8.417298174694501922e-01 -5.325496123497283074e-01
2.202610731158235746e-01 -5.967675093723305846e-01 3.661236366947780985e-01 1.713464703105966214e+00 -4.109298374745661842e-01 -1.516386419025438137e+00 -9.768648626711194938e-01 -1.787693510574583644e-01 -3.201268770121342144e-01 1.307977812715711785e+00 -5.006790064391666295e-01 -1.073227787300567559e+00 1.144480806726731803e+00 1.096731201788057497e+00 1.180960094996305262e-02 -2.486706752480994376e-01 2.294872489981588104e-01 -9.843970032224823585e-01 1.017167320787554924e-01 1.306567316665321776e+00 1.792548688545698043e+00 3.908540381603469727e-01 -1.726115864942509681e+00 3.006589924862789864e+00 1.582199409186110239e+00 1.775607973041662402e-01 -1.344605966650415318e+00 1.459371000415479180e-01 7.605641950815987817e-01 1.670758178870698885e+00 -2.007796723025365715e+00 1.872471399728986796e+00 -1.234560255258582373e+00
-1.020859774636893924e+00 -3.824697471894364931e-01 1.041071033705420312e+00 2.466262932761288162e+00 -7.213354379562871010e-02 -1.173322383045771189e-01 5.434483072992567498e-01 9.744008548870808362e-01 3.670134474036091943e-01 2.075349026503463090e+00 2.484833610982368490e-01 1.009618066979035333e+00 -9.046228575328274513e-01 2.811407486691037683e-01 -6.579194892141208006e-01 -9.273255415447924088e-01 1.779956784526007585e+00 -1.664750365133110255e-01 -2.509018873095644420e+00 -5.582895234351861191e-01 8.464137975324673713e-01 -9.515790754479406255e-01 8.349363202433606190e-01 -3.059196356037459652e-01 -4.080387650186274862e-02 1.502240391359137839e-01 5.060509006937637944e-01 6.513619388540335953e-01 -3.916149319030914344e-01 -1.175567763594792092e+00 -1.274381035445833144e+00 8.082889102924455116e-02 2.065833614439652965e+00
-3.239864524158617143e-01 -9.153559158768493909e-01 1.086708319421815894e+00 8.285537303998602443e-01 -1.539382512921216417e+00 -2.032046983138608542e+00 -5.716999236955553343e-01 -3.561124817222071082e-01 7.319740239428812467e-01 2.335304945793050535e-01 4.609380530775369356e-01 7.494591842028355266e-01 1.384560496137343000e+00 6.542529776848668988e-01 6.130850448138015496e-01 8.279012094956266221e-01 9.502606029402979049e-01 9.721363923180177391e-01 4.354444830078509354e-01 6.417556712297564081e-01 -1.155296062448456507e+00 2.597025794508708962e+00 -5.073770361996068345e-01 2.172466933031301561e+00 4.836209489104449921e-01 2.497170632140283786e+00 -1.860107141455453750e-01 1.873358666647671200e-01 6.269894418919564893e-01 -1.360069515782633021e+00 -1.599005386439069087e-01 2.901491814951879356e+00 1.108429029321844395e+00
1.499290602284358620e+00 -9.784985927737573919e-01 1.271963276569105572e+00 6.276049093478149044e-02 -6.503416435938773332e-02 -1.634611908478461606e+00 -3.246308737360289465e-01 6.804679979922687583e-01 2.748748204798329153e-01 -4.205075387269285869e-01 7.226821753830741102e-01 1.276718208109786090e+00 1.212476990057602677e+00 -1.484885913359161869e+00 1.129268669745628617e-01 -5.115779040681993628e-01 5.753842476676194195e-01 -1.069961258908061374e+00 -7.324661588008432034e-01 9.122747479952164618e-02 8.518654385020876241e-01 -9.256030894083581151e-01 -4.087367406946755266e-01 -9.608781450315025952e-01 -7.610254852796333180e-01 -9.853080252753892987e-01 2.410605400581926183e+00 3.911600855450514946e-01 7.036109486503420163e-01 1.296456661199154814e+00 4.520674855393803093e-01 7.942851348565996839e-01 5.893774025118200255e-01
-1.763347864723545877e+00 1.350233086629252677e+00 4.663834598278685517e-01 1.616860785677511458e+00 1.030283393917339696e+00 -3.883635988885483226e-01 1.471771637320250736e+00 2.150465530366004185e-01 1.968093610713647745e+00 9.263897375056040495e-02 -6.323375661111955148e-01 1.383099459317426450e-01 -1.617917796067009362e-01 -4.524253797499169782e-01 1.220539449287462996e-01 -6.283583356312402168e-01 -4.314496162048755967e-01 -1.783094948121935808e+00 7.338601903118181502e-01 -2.369681369371547386e-01 -2.875180093867775177e+00 6.204330766486082505e-01 6.011436193828124663e-01 2.998113352710543467e+00 -4.756236432676963499e-02 2.224266272383672860e-01 -5.789650155062352199e-02 1.534088090555158823e+00 2.579833424512973927e-01 -1.905483407374111149e-01 -1.564442196667847895e+00 -1.598670963132293066e+00 -1.072241615026659378e+00
-6.645939614357994074e-01 -2.364527513366893874e-01 5.992615080779518655e-01 3.699454699061641150e-01 6.238899137354670943e-01 5.906050520602003084e-01 7.633447982340932914e-01 -2.334719216289851962e-01 -5.687875930509653788e-01 -3.641059976606305648e-01 -6.465316712219976170e-01 5.478393474419279707e-01 -8.608216872552214571e-01 -3.859296758500497804e-01 9.893086245844030790e-02 8.107996690972579801e-01 3.582929125506101875e-01 -4.542693918618380677e-01 3.497431047167912088e-01 -6.597391906876183265e-01 1.034285309353820903e+00 -3.730483198378122811e-01 6.803522310166235654e-01 -5.499320384049316557e-01 -3.712523152586212905e-01 5.916506329924245966e-01 6.136932785230619913e-01 1.337943236273476666e+00 -2.451677234752073220e-01 -4.597255260321002623e-01 3.886258548641139399e-01 -6.427682580491979047e-01 -3.890795636302830096e-01
