(2, 16, 8, 1)
tanh tanh linear
2.166410260081288008e+00 6.539689665016750197e+00 2.424460713438698622e+00
9.865842626315283193e-01 -2.227156091418039274e+00 -3.379810099866837447e+00
-1.982826499725597991e+00 -4.303305376039027741e-01 5.312421334194088907e+00
-5.744942701821321052e+00 4.122201320444498940e+00 1.372173893453607352e-01
-2.238912442981271234e+00 7.238915964698618977e-01 3.236059440553995081e+00
-3.406317874185819328e+00 1.300628383452739678e+00 -1.043543623002335607e+00
-2.897730481187294593e+00 -2.279464004510041608e+00 -1.070576963016619976e+00
3.771695733194060374e+00 4.549227452555048679e+00 -1.809041582632793244e+00
-6.898885198706789623e+00 6.382934719910393184e+00 1.686084639972972532e+00
2.112734245929292209e-01 4.237801444615774571e+00 -1.395520972239734370e+00
-1.294226818673541723e+00 -3.457730572807263592e+00 4.338371250936424062e+00
-1.780961243437899411e+00 4.791784775325997892e+00 -1.495865248462937114e+00
-1.239694866236060511e+00 1.288953430448602777e+00 -1.622448736515998524e+00
-3.429169869159758743e+00 -3.364929818221011892e+00 -1.495672049372892380e-02
3.206253602028088068e+00 1.662148029156652829e+00 3.121032825871128846e+00
4.829198633281072683e-01 -5.362872688517317243e+00 -2.306870271062082978e+00
8.610924325688267267e-01 2.169197944740545392e+00 2.480587664678429949e+00 -2.466140516483503742e+00 2.877518723089172781e+00 -1.883360028915008824e-02 -2.096377365103547330e+00 3.932904989281237884e-01 -1.509430349933246207e+00 1.666072098034548254e+00 -1.914298304959519248e+00 8.840742116943604012e-01 -6.981990656996067690e-01 -4.033850494148218502e+00 1.312752988890697026e+00 1.084337695649439715e+00 -1.339577618543160042e+00
1.041994960509355694e+00 -2.277433279376767372e-01 3.299681079790196640e-03 1.996430794694805388e-01 1.740570293437531113e+00 1.497256606609873808e+00 -1.397102238922755868e+00 3.658139423884694263e+00 5.524430796009350830e-01 -2.358075561308819346e+00 1.457206345360948785e-01 6.124235626640863739e-01 2.329725621325770657e+00 4.456539526121536254e-01 -2.974345893409280350e+00 6.289706807653798748e-01 3.447908452792403100e-01
-3.992200261974368503e-01 -1.282764613802846121e+00 -1.440111014971809711e+00 -1.155879017712006185e+00 -3.845044386111520218e-01 -4.087243291706317838e-01 2.525894409243005345e+00 9.738262612959205367e-01 -5.877987106143386375e-01 1.257382226264915914e+00 1.029942194151548973e+00 -1.307674637897683068e-01 -8.667385920384647058e-01 -5.748502144464232577e-01 1.165835388457245880e+00 -2.848037960432131532e-01 3.802459140749478106e+00
-1.964144157889485820e+00 -5.863046324093066364e-01 -4.011864753113216331e+00 3.097966296207544268e+00 -2.697072144229560653e+00 -1.363628160266044276e+00 1.408490671803187544e+00 -3.987856476801971528e+00 -5.917174585270775777e-01 1.531846479366320679e+00 -3.101205855014870671e+00 -2.233359809701017440e+00 -2.519478221727050382e+00 -2.137900918211113055e-01 -2.848192481806898768e-01 -3.450613049385377273e+00 1.194202255006974189e+00
-6.916388605008109147e-01 -2.000629925276651733e+00 -3.821693166586203616e-01 -1.210296795795131886e-01 3.022734080981965832e+00 -2.870793225143223992e+00 -8.303744597109233294e-02 -4.034434877832494770e+00 8.189800406277008005e-01 -2.898012654570265134e+00 -4.314391661898168140e-01 -2.511047384936413884e+00 1.722066783632073328e+00 3.276554556722941935e+00 4.541710766145540923e+00 -2.067801440121348477e+00 3.919710007932200035e+00
2.959163284409346839e-01 1.005414639478953015e-01 -5.558677065837592801e-01 1.465644154010128819e+00 -1.050459567951723239e+00 -6.747296025324879265e-01 -1.933656978787806624e-01 2.152439177773984191e+00 -2.171930352261576491e+00 -1.016698287714894677e+00 -1.819418795343319961e-01 -2.588698969824750673e+00 -7.398869506167704557e-01 -2.067281258652297282e+00 -1.402969276371926366e+00 -4.483946914547509155e-01 6.949710580114535352e-01
4.278333928227839311e-01 2.076175247196330176e+00 2.153194439449372055e+00 5.245678873950544441e-01 -3.200639201562318625e+00 -1.224599620337324168e+00 -1.045942541010540516e+00 2.601086706947459692e+00 -3.012448979922415671e+00 -9.868232397042548953e-01 2.985324942936397677e-02 -1.701315149862026255e+00 6.812971220420711849e-02 3.368737772224220800e-02 -4.478962899966439370e-01 3.851742227208718727e-01 -1.166141510169556472e+00
3.799737724418489337e-01 1.427421332203910209e+00 3.222580624748748956e+00 2.523538121041402627e-01 2.069372082072881980e-01 4.176635770853184271e-01 -1.089516889354519513e+00 2.026494806292685080e+00 1.758325336357255742e+00 -1.626446043312911760e+00 2.855088147365409057e+00 9.015930940112744096e-01 8.804676727905600409e-01 2.117848339541769764e+00 3.472341041991088506e+00 3.475828187096500432e+00 1.707795186993133596e+00
-8.964466755807074527e-01 -6.047107675066764054e-01 -1.218558616086884872e+00 -1.523175283455491469e+00 -4.568038322592935518e-01 -7.415918292133396594e-01 9.535119478560130091e-01 -4.457682341957737160e-01 6.759857187091188324e-01
